//Numpy array shape [1, 10, 20, 10]
//Min -0.536955595016
//Max 0.616437256336
//Number of zeros 0

#ifndef W4_H_
#define W4_H_

#ifndef __SYNTHESIS__
conv2d_1_weight_t w4[2000];
#else
conv2d_1_weight_t w4[2000] = {0.02212880738080, -0.26577645540237, 0.37506213784218, -0.38689187169075, -0.01763782091439, 0.08479637652636, -0.17572538554668, -0.03829206153750, -0.20220725238323, -0.36474090814590, 0.05433221533895, 0.22737528383732, -0.30401161313057, -0.12089936435223, -0.03459310904145, -0.10055365413427, 0.17590261995792, 0.25482627749443, 0.18624264001846, 0.10480733960867, -0.00557844806463, 0.11269059777260, -0.40740105509758, -0.24860821664333, -0.13519291579723, -0.34693616628647, -0.02282827533782, -0.37828221917152, 0.03803152218461, -0.14953683316708, 0.04528010636568, 0.21007059514523, -0.13705354928970, 0.28068238496780, -0.03479038551450, -0.14430770277977, 0.33298403024673, 0.13064691424370, 0.21167883276939, 0.26923710107803, 0.14167122542858, 0.02114770561457, -0.29285800457001, 0.34837669134140, 0.15448364615440, 0.10316708683968, -0.02117251232266, 0.12317029386759, 0.18528921902180, -0.06639163196087, -0.07323570549488, -0.30146089196205, 0.33566480875015, 0.06591051071882, -0.08188490569592, 0.15720953047276, -0.19041274487972, -0.30203124880791, -0.21554602682590, -0.08380767703056, 0.10904164612293, -0.03160540014505, 0.07880821079016, -0.02401840128005, -0.12660677731037, 0.11539977788925, -0.20040184259415, -0.16436806321144, -0.00795098859817, -0.12090859562159, -0.21323095262051, 0.12227725982666, -0.52263993024826, 0.15607969462872, -0.18910416960716, -0.38072186708450, 0.16984477639198, -0.48658153414726, 0.12947975099087, 0.00413279654458, 0.21111893653870, 0.01915946602821, 0.12435342371464, -0.05499133840203, 0.21642245352268, -0.03399403765798, -0.07194637507200, 0.06859353929758, -0.02232120186090, 0.05398152768612, -0.25292426347733, 0.07104077190161, -0.21267645061016, 0.02596465311944, -0.14637772738934, -0.19320683181286, 0.10418109595776, 0.07575291395187, 0.29099932312965, 0.11525444686413, -0.12805372476578, 0.07206279784441, -0.41538780927658, 0.03107026405632, 0.04010502621531, -0.31336984038353, 0.12140356749296, -0.28087627887726, 0.20399016141891, 0.03026555478573, 0.09699634462595, -0.14663963019848, -0.05563782900572, -0.01802926510572, 0.02778163924813, 0.00356572493911, 0.08927961438894, 0.05252848565578, 0.06848958879709, -0.06091821566224, 0.12930583953857, -0.20541600883007, 0.20114827156067, -0.10269085317850, 0.14396722614765, 0.27247074246407, -0.19453130662441, -0.30344539880753, -0.02340669557452, -0.20987382531166, 0.27632981538773, -0.26896318793297, 0.23146443068981, -0.07110979408026, -0.09966827183962, 0.33273506164551, -0.13664466142654, 0.14439156651497, -0.23605436086655, -0.30635875463486, 0.22479791939259, 0.15150672197342, 0.25646564364433, 0.11540175974369, 0.04397195205092, 0.03670345991850, -0.09932576864958, 0.01212416682392, -0.08101248741150, -0.03566565364599, 0.19333091378212, 0.12367304414511, -0.14015305042267, 0.21077039837837, 0.21895717084408, -0.16948050260544, 0.02214059606194, -0.17200955748558, -0.00789704546332, -0.04784234240651, 0.15553371608257, 0.11390655487776, -0.29589992761612, 0.42015570402145, 0.22281675040722, -0.11356592178345, 0.27122575044632, 0.14951758086681, 0.14263412356377, 0.10371283441782, 0.04126062244177, 0.15770314633846, -0.14574639499187, 0.06240578740835, 0.23738993704319, 0.01655560359359, 0.17893444001675, 0.15999470651150, 0.04845585674047, 0.14777922630310, -0.02451498620212, -0.10490398108959, 0.05662270635366, 0.04554914683104, 0.00994882173836, -0.03856674954295, -0.05973183363676, -0.22345422208309, -0.03229923546314, -0.10163693130016, -0.10514166951180, 0.20341946184635, -0.27849012613297, 0.02754024043679, -0.17573986947536, 0.00125111208763, 0.10629953444004, 0.04085785150528, 0.25752681493759, 0.08444812148809, -0.07846522331238, -0.19135597348213, 0.21313472092152, -0.37146601080894, -0.08291838318110, 0.09057372063398, -0.09893526881933, 0.17066499590874, -0.14341582357883, -0.30578717589378, -0.14321362972260, 0.11627478897572, -0.24548669159412, 0.00400651991367, -0.01672232151031, -0.00512976432219, 0.23504994809628, 0.19009242951870, 0.14619411528111, 0.13679212331772, -0.19220159947872, 0.15334144234657, -0.16218857467175, -0.11581322550774, -0.13970685005188, -0.38579735159874, 0.02732386998832, -0.26861047744751, 0.12087240815163, 0.13406240940094, 0.03269614651799, 0.41662397980690, -0.13894024491310, 0.05629039183259, 0.05196153745055, -0.12479831278324, 0.17271232604980, 0.05713564902544, 0.18808329105377, 0.29592716693878, 0.13630907237530, 0.00817192252725, -0.09816278517246, 0.13824607431889, 0.18412204086781, -0.08763079345226, 0.12036643177271, -0.08759272098541, 0.15693207085133, 0.19929026067257, -0.02626344189048, -0.27226173877716, 0.20899204909801, -0.10990468412638, 0.00048091675853, 0.04833605140448, -0.18595544993877, -0.27035444974899, -0.13172432780266, -0.25516718626022, 0.05286485329270, -0.04918016493320, 0.16619230806828, -0.26102539896965, -0.22230318188667, 0.02113477699459, -0.09413921087980, -0.18802995979786, -0.24780507385731, -0.13247653841972, -0.25070679187775, 0.10238143056631, -0.39113372564316, 0.27603185176849, -0.16329139471054, -0.33387881517410, 0.05520087480545, -0.19037018716335, 0.12049406021833, 0.02217942848802, 0.20109952986240, 0.17021527886391, 0.10482590645552, 0.02886169962585, -0.04726001247764, 0.10067225247622, 0.17920057475567, 0.32558542490005, -0.06365274637938, 0.00580143509433, -0.07001443207264, 0.31608590483665, -0.37229529023170, 0.12095405906439, -0.05825493857265, -0.36689707636833, 0.30981054902077, 0.15183702111244, 0.35301667451859, 0.04260745644569, 0.10293722152710, 0.02805797569454, -0.13266144692898, 0.08321847021580, -0.13786815106869, -0.02510687336326, 0.02191830612719, 0.11178932338953, -0.01250447612256, 0.15706709027290, 0.11093584448099, 0.12642227113247, -0.01825994811952, -0.05299157649279, 0.03832089528441, 0.06380649656057, 0.13852024078369, 0.17659308016300, 0.11756407469511, -0.13192607462406, 0.18037144839764, -0.15956537425518, 0.26833659410477, -0.19874866306782, -0.08390190452337, 0.07111525535583, -0.04124024510384, -0.11340516060591, -0.18346476554871, -0.12255045771599, 0.10080293565989, -0.26517015695572, 0.21552665531635, -0.09833313524723, -0.02146895416081, 0.30296531319618, -0.18300135433674, 0.18525674939156, -0.15334232151508, -0.05070601776242, 0.24770249426365, 0.04848233610392, 0.08952341973782, 0.17355662584305, -0.01879210956395, 0.14757628738880, -0.08949266374111, 0.17001475393772, -0.03439968451858, 0.09708227962255, 0.18457628786564, -0.01812374591827, -0.14225430786610, 0.10857618600130, 0.23058186471462, -0.11021611839533, 0.03437435999513, -0.21427498757839, 0.03731549903750, 0.02853148244321, 0.17842411994934, 0.04173979908228, -0.33780476450920, 0.33890837430954, 0.03475654125214, -0.06445862352848, 0.20306402444839, 0.27032276988029, 0.17038749158382, 0.08975442498922, 0.09970784932375, 0.10032347589731, -0.28162404894829, 0.01088936068118, 0.20889700949192, -0.02118510380387, 0.23878766596317, 0.18618798255920, 0.17784154415131, 0.16864211857319, 0.11458258330822, -0.04480453208089, 0.16250038146973, -0.11114387214184, 0.05155553668737, 0.02487421780825, -0.09090719372034, -0.28560137748718, -0.06154338642955, -0.06750405579805, -0.19894722104073, 0.17895734310150, -0.18622677028179, 0.17395542562008, 0.02018438093364, -0.09719369560480, 0.03280367329717, 0.03403025865555, 0.19767831265926, 0.23031029105186, 0.02975776791573, -0.05646310001612, 0.33062940835953, -0.32341372966766, -0.15360026061535, -0.05311518162489, -0.19431848824024, 0.13786089420319, -0.26480409502983, -0.08309522271156, -0.09541873633862, 0.06896650046110, -0.21230719983578, 0.03271133080125, -0.05988022312522, -0.09133485704660, 0.18679061532021, 0.06557141244411, 0.17875300347805, 0.19367785751820, -0.23329044878483, 0.10888940840960, -0.24744538962841, -0.11567328125238, -0.27439576387405, -0.38494059443474, 0.04648688808084, 0.01268397830427, 0.13902047276497, 0.05970878526568, 0.05575196817517, 0.33458301424980, -0.27050635218620, 0.07393193244934, -0.00569532671943, 0.05396278575063, 0.14815123379230, 0.20644044876099, 0.32037693262100, 0.37317246198654, 0.09493575990200, -0.00523486128077, -0.17898589372635, 0.18166920542717, 0.22066789865494, -0.12143445014954, -0.02909841015935, -0.03486451506615, 0.25480398535728, 0.12810385227203, 0.09237879514694, -0.23974661529064, 0.29272869229317, -0.12811715900898, 0.00972833298147, 0.06445451080799, -0.14793585240841, -0.11404483765364, -0.22555896639824, -0.13082385063171, 0.04541295766830, -0.14159423112869, 0.23724482953548, -0.04476164281368, -0.06189440935850, 0.00186523469165, -0.15564179420471, -0.14821803569794, -0.05188638344407, -0.01962177455425, -0.23532569408417, -0.01417308300734, -0.32481718063354, 0.10967154800892, -0.13333842158318, -0.30659896135330, -0.00573266483843, -0.07068388164043, 0.15983210504055, 0.10786664485931, 0.15862543880939, 0.03792509436607, -0.08494715392590, 0.04260050877929, 0.05979486182332, 0.14292718470097, -0.09549777209759, 0.39014014601707, 0.06299054622650, 0.13095110654831, -0.20307731628418, 0.13139984011650, -0.13882066309452, 0.21231041848660, 0.22561733424664, -0.27094468474388, 0.17024596035480, -0.01599742099643, 0.16608105599880, 0.16436986625195, -0.06025693193078, 0.16895373165607, -0.30308431386948, 0.08780100941658, -0.10227258503437, -0.13423368334770, 0.08720288425684, 0.15207453072071, 0.02586391568184, 0.05419909209013, 0.16906669735909, 0.09820810705423, 0.06511053442955, -0.01536439638585, 0.21187601983547, 0.09359883517027, -0.02191977016628, 0.03628189116716, 0.07338905334473, -0.14189700782299, 0.09545306861401, -0.23015810549259, 0.18879865109921, 0.01089625619352, -0.10170109570026, 0.16195333003998, -0.09632536768913, -0.17392314970493, -0.11401070654392, -0.25068590044975, 0.16882377862930, -0.08989695459604, -0.03584556654096, -0.02195179834962, -0.11252723634243, 0.28884056210518, -0.07275399565697, 0.23889634013176, 0.02380227856338, 0.00322783226147, 0.24197404086590, -0.04116952791810, 0.27761650085449, 0.11579646170139, 0.10407600551844, 0.06139623001218, -0.01776471361518, -0.06761398166418, -0.07572280615568, 0.10963671654463, 0.15245142579079, -0.06029910966754, -0.17461846768856, 0.13810111582279, 0.35591402649879, -0.13872927427292, 0.25862383842468, -0.08823713660240, 0.05719500407577, 0.26387745141983, 0.19469696283340, 0.27338963747025, -0.25206685066223, 0.20391745865345, 0.23950049281120, -0.01765750907362, 0.26862719655037, 0.15273135900497, 0.37001308798790, 0.11687393486500, 0.08378816395998, 0.10772793740034, -0.18901345133781, 0.12781518697739, 0.07933364808559, 0.04513321816921, 0.21647794544697, 0.25550436973572, 0.16349652409554, 0.22513943910599, 0.25315293669701, 0.09248620271683, 0.24461047351360, 0.11503876000643, 0.02701082453132, -0.04656740278006, 0.07164448499680, -0.31217628717422, 0.06648275256157, -0.07555573433638, 0.04644235223532, 0.30563846230507, -0.22281222045422, 0.15086938440800, 0.06802519410849, -0.12458207458258, 0.24440844357014, 0.04771645739675, 0.04747676849365, 0.29678499698639, -0.04255247116089, -0.19450262188911, 0.20918294787407, -0.29025655984879, -0.06551320105791, 0.00986843369901, -0.10191109776497, -0.09745331853628, -0.34889146685600, -0.20720513164997, -0.12793003022671, 0.23956836760044, -0.35748526453972, -0.00739045394585, 0.09446527808905, -0.01747596822679, 0.24019676446915, 0.13988249003887, 0.25038322806358, 0.23417183756828, -0.26708334684372, 0.03785010054708, -0.23101697862148, -0.13976237177849, -0.03831506147981, -0.33173927664757, -0.07289654761553, 0.06256309896708, 0.13358433544636, 0.20287221670151, 0.11899866908789, 0.39854222536087, -0.31018248200417, 0.00955684762448, 0.05278559774160, -0.02201340347528, 0.23313295841217, 0.15960139036179, 0.14461562037468, 0.16306963562965, 0.19883419573307, 0.12387389689684, -0.05357457324862, 0.30677407979965, 0.10250946879387, -0.01978067494929, -0.04408916085958, -0.17848403751850, 0.00390415033326, 0.08170308172703, 0.14276653528214, -0.02367202937603, 0.34996438026428, -0.06404381990433, 0.15989349782467, 0.14054295420647, -0.10745110362768, -0.17582239210606, -0.19825911521912, -0.26317253708839, 0.04884184896946, 0.04833979159594, 0.26670849323273, -0.20992892980576, -0.12007996439934, 0.16659837961197, -0.05847575515509, -0.13017675280571, -0.01013397052884, -0.03793703392148, -0.24835643172264, 0.11154173314571, -0.44868728518486, 0.32604095339775, 0.02796455472708, -0.45816987752914, 0.11251313984394, 0.02933260984719, 0.12335863709450, 0.22054275870323, 0.01084901671857, 0.14542096853256, -0.03205560520291, 0.17230036854744, 0.18476343154907, 0.01715081185102, -0.05731428787112, 0.13379535079002, -0.06062036007643, 0.11884386837482, -0.23113378882408, 0.10779831558466, -0.14987723529339, 0.01532054226846, 0.04394457861781, -0.34843188524246, 0.08744557201862, 0.14828640222549, 0.32916978001595, 0.14579376578331, -0.18346260488033, 0.09533945471048, -0.19808347523212, -0.12197066098452, 0.20352603495121, -0.13892126083374, -0.03117935173213, 0.12419723719358, 0.18133842945099, 0.19855719804764, 0.12910246849060, -0.03421566262841, -0.07939213514328, 0.14882083237171, 0.22527407109737, 0.19330249726772, -0.04975837841630, 0.14747942984104, 0.09717933088541, -0.03622165322304, 0.10855989903212, -0.00848172325641, 0.17224812507629, -0.05422354862094, -0.01275651436299, 0.17238216102123, -0.05074143782258, 0.12793017923832, 0.02714629843831, -0.06853560358286, 0.12190614640713, -0.17091396450996, 0.18468526005745, -0.10626640170813, -0.17598834633827, 0.10334084928036, -0.02419849298894, 0.29792606830597, -0.11527955532074, -0.04366365447640, 0.02235918492079, 0.12212860584259, 0.16705198585987, 0.26374384760857, 0.17473097145557, 0.11694183945656, -0.09878654032946, 0.12698690593243, -0.06615302711725, 0.14901702105999, 0.00846363604069, 0.13327099382877, -0.24672433733940, 0.14760196208954, 0.17629987001419, -0.03735306486487, 0.29798558354378, -0.10914499312639, 0.16609184443951, 0.19561861455441, -0.04105235263705, 0.18909478187561, -0.20928843319416, 0.25804972648621, 0.18436394631863, 0.04944973066449, 0.18054127693176, 0.00613529793918, 0.18677337467670, 0.33292198181152, 0.13642232120037, 0.05274194478989, -0.10384269803762, 0.13652655482292, 0.11268960684538, 0.07448197901249, 0.03026309795678, 0.04370684549212, 0.16162805259228, 0.02683445811272, 0.20889128744602, 0.01381551939994, 0.13261179625988, 0.06294281780720, 0.09307418763638, 0.11257445067167, -0.09270589053631, -0.28328600525856, -0.02330793812871, 0.00178974738810, -0.02397303842008, 0.12465603649616, -0.31942424178123, -0.11342706531286, 0.00056044000667, -0.07388900965452, 0.00478532584384, 0.19847662746906, 0.22187796235085, 0.29208046197891, -0.10468311607838, -0.15328414738178, 0.24678796529770, -0.45507392287254, -0.20497213304043, 0.12961278855801, -0.28324657678604, -0.07896872609854, -0.22926859557629, -0.15337733924389, -0.16336886584759, 0.28060510754585, -0.30926007032394, 0.05296114832163, 0.04777259379625, -0.04816356301308, 0.22031633555889, 0.09706313163042, 0.06811361759901, 0.23628397285938, -0.14924627542496, 0.02956732548773, -0.08084832876921, -0.19671802222729, -0.12238004058599, -0.20117972791195, 0.06514342874289, 0.09060163795948, 0.05384542420506, 0.00275693298317, 0.00197045085952, 0.24874301254749, -0.31325182318687, 0.12397477030754, 0.05196835100651, 0.03301833942533, 0.01952566951513, 0.23352897167206, 0.02683911845088, 0.36273610591888, 0.23370569944382, 0.06804326921701, -0.10573085397482, 0.29094159603119, 0.10876509547234, 0.11011167615652, 0.02804374694824, -0.14972341060638, 0.18339779973030, -0.00599843170494, 0.22887864708900, -0.17886030673981, 0.22648622095585, -0.06158893927932, 0.00342336785980, 0.09818670153618, -0.10754297673702, -0.17389871180058, -0.11141762137413, -0.14279969036579, -0.01883156970143, -0.06410366296768, 0.02135363593698, -0.18471384048462, -0.02672941237688, 0.05111317336559, -0.10067036747932, 0.03751521930099, -0.11554329842329, -0.00891758129001, -0.38748568296432, -0.04772614315152, -0.24053791165352, 0.05696678161621, 0.09239940345287, -0.38225260376930, 0.04203737527132, 0.05916923657060, 0.20841221511364, 0.24501994252205, 0.11181093752384, 0.17893372476101, 0.10414393246174, 0.04810049012303, -0.05644802376628, 0.24214853346348, 0.16405732929707, 0.17839699983597, 0.06336757540703, 0.18737646937370, -0.26537114381790, 0.24580164253712, -0.22009158134460, 0.12594698369503, 0.13861905038357, -0.13874536752701, 0.20213030278683, 0.02367978543043, 0.19125804305077, 0.16404663026333, 0.04960472136736, 0.00687495758757, -0.20514813065529, -0.17468778789043, 0.17947927117348, -0.13507151603699, 0.20653015375137, 0.07613436877728, -0.04903075844049, 0.13094937801361, 0.22742997109890, -0.06975807249546, -0.04970934987068, 0.02082918956876, 0.01749548316002, 0.06445698440075, 0.02004989981651, 0.15542776882648, 0.00510887010023, -0.00157541851513, -0.05265784263611, -0.18092444539070, 0.21585950255394, -0.01240728143603, 0.11721605062485, 0.18887826800346, -0.01761904172599, 0.09168916940689, -0.06547825038433, -0.08332782238722, 0.13701410591602, 0.04110041633248, 0.10567177832127, -0.09898756444454, -0.00307649048045, 0.19413127005100, 0.03956854343414, 0.25740754604340, 0.05149309709668, -0.01776898279786, 0.13054613769054, -0.03730302304029, 0.06058961153030, 0.03478585556149, 0.11945111304522, 0.07144800573587, -0.08801175653934, 0.19231240451336, -0.03642408177257, 0.12771128118038, 0.04226410761476, 0.13720411062241, -0.03968484699726, 0.12543682754040, 0.37134498357773, -0.08693544566631, 0.18474397063255, -0.27888551354408, 0.19282777607441, 0.16959418356419, -0.03231061995029, 0.21190510690212, -0.39106696844101, 0.27886947989464, 0.19887407124043, -0.12159228324890, 0.25418207049370, -0.37778872251511, 0.21754400432110, 0.15695920586586, 0.13229124248028, -0.04280017316341, -0.18998135626316, 0.21630989015102, 0.24301142990589, -0.01448411867023, 0.25342464447021, 0.14751394093037, 0.06643001735210, 0.17773649096489, 0.04383488371968, 0.03041138313711, 0.08583332598209, 0.11466287821531, -0.04498145729303, 0.10771469771862, 0.01786674931645, -0.19370640814304, -0.01036110799760, -0.01005364116281, -0.07463721930981, 0.31502458453178, -0.20778472721577, -0.08396356552839, -0.04759156703949, -0.19425037503242, 0.13320024311543, 0.20044948160648, 0.25493729114532, 0.28166365623474, -0.13072218000889, -0.29868009686470, 0.37431976199150, -0.27464789152145, -0.35021260380745, 0.13187453150749, -0.22028669714928, -0.09088491648436, -0.28961339592934, -0.30092790722847, -0.21723149716854, 0.11268517374992, -0.49001219868660, -0.13333469629288, -0.20925909280777, -0.36409756541252, 0.01206379663199, -0.09272221475840, 0.03331836685538, 0.25878059864044, -0.15358929336071, -0.07307357341051, -0.32625064253807, -0.04866658896208, 0.01654110848904, -0.30681189894676, 0.14679279923439, 0.28241795301437, 0.14644002914429, 0.07045638561249, 0.08932742476463, 0.30555269122124, -0.35355404019356, -0.01143326330930, -0.00636692205444, 0.07629265636206, 0.23121103644371, 0.02083883807063, 0.18309707939625, 0.37158733606339, 0.23767530918121, 0.13707308471203, 0.08275455236435, 0.26642036437988, 0.00424219109118, 0.07134287059307, -0.07163269072771, -0.25186580419540, -0.03348525986075, 0.00235892855562, 0.24059353768826, -0.19060406088829, 0.15621811151505, -0.07800996303558, -0.03524233773351, 0.05601526796818, 0.03992656990886, -0.19461981952190, -0.02098059095442, -0.17489527165890, 0.00945543404669, -0.09961424022913, 0.04582642763853, -0.11994872987270, -0.15272006392479, 0.20059545338154, -0.16868472099304, 0.15706144273281, -0.01094435900450, 0.05737023800611, -0.40018674731255, -0.05943404883146, -0.27324232459068, 0.08353509008884, 0.13526931405067, -0.29726704955101, 0.20534119009972, 0.00262413872406, 0.17185343801975, 0.26041767001152, 0.13443788886070, 0.10159773379564, -0.08301450312138, 0.24897330999374, 0.00314702582546, 0.26514536142349, 0.05438670143485, 0.02277071401477, 0.11703954637051, 0.15331543982029, -0.08418697118759, 0.24935650825500, -0.21397279202938, 0.12054514884949, -0.04213217645884, -0.29155904054642, 0.03099333867431, 0.07561694085598, 0.15266348421574, 0.24730359017849, -0.16409476101398, 0.12007457762957, -0.12039148062468, -0.07477682083845, 0.14249645173550, -0.19257144629955, -0.00552167836577, 0.33518266677856, -0.08833199739456, 0.14923423528671, 0.23335316777229, 0.16341970860958, -0.00264335004613, 0.02060014754534, 0.23625977337360, 0.06406433880329, 0.17695996165276, 0.13758318126202, 0.17652307450771, -0.06589222699404, 0.11771765351295, -0.13597583770752, 0.24175989627838, -0.00983221828938, 0.00722135324031, 0.23651354014874, -0.10409054160118, 0.27496740221977, -0.08147775381804, -0.14637760818005, 0.26502624154091, -0.11006107181311, 0.18892520666122, 0.00715422676876, 0.02543289214373, 0.32355421781540, -0.09013481438160, 0.14059196412563, 0.05068015679717, -0.06715398281813, 0.20684942603111, 0.12393386662006, 0.10368517786264, 0.16129732131958, 0.32997611165047, 0.23712766170502, -0.03445961698890, -0.05148627236485, -0.07163860648870, 0.07173152267933, 0.19331921637058, 0.18421506881714, -0.13936522603035, 0.22976092994213, 0.16123796999454, -0.20750945806503, 0.17826573550701, -0.22544267773628, 0.21739545464516, 0.16560865938663, -0.10176746547222, 0.10494771599770, -0.19477254152298, 0.08341173827648, 0.17556531727314, -0.21351400017738, 0.01420983858407, -0.37339445948601, 0.27938938140869, 0.29553812742233, -0.07794998586178, -0.00221068481915, -0.16334050893784, 0.09758182615042, 0.26804184913635, -0.07906375825405, 0.19064764678478, 0.09356514364481, 0.11307503283024, 0.15265712141991, 0.20835721492767, -0.09524233639240, 0.23463150858879, 0.18518839776516, 0.22415359318256, -0.00451474543661, 0.09349887073040, 0.03427656367421, -0.03662448376417, -0.02122956141829, -0.10101734101772, 0.17051070928574, -0.21622823178768, -0.02764905616641, 0.04598516598344, -0.00772531516850, 0.09736025333405, 0.14262619614601, 0.06499156355858, 0.21861012279987, 0.09707294404507, -0.21213561296463, 0.32574990391731, -0.16463720798492, -0.20016346871853, 0.13461861014366, -0.25744575262070, 0.15408450365067, -0.10632854700089, -0.30112439393997, -0.13956159353256, 0.08619427680969, -0.42730337381363, 0.01813792809844, -0.17847597599030, -0.22065936028957, -0.00597088830546, -0.07690904289484, 0.00208921474405, 0.17812094092369, -0.07728283852339, 0.16632494330406, -0.29031336307526, -0.09435790777206, -0.15998204052448, -0.17900456488132, 0.05009685829282, 0.14853844046593, 0.01796372048557, 0.03257560357451, 0.10936518758535, 0.20594659447670, -0.22219026088715, -0.07257504761219, -0.04169818013906, 0.06044171005487, 0.15236744284630, 0.21258489787579, 0.19376103579998, 0.16986823081970, -0.00045736719039, 0.20585928857327, -0.07688427716494, 0.11423376202583, 0.04226390272379, 0.16046614944935, 0.18383741378784, -0.13054852187634, 0.10634634643793, -0.00061538710725, 0.24927426874638, -0.11276458203793, 0.14284558594227, -0.06517563760281, -0.04465694352984, 0.14460535347462, 0.03544719517231, -0.29137754440308, -0.01646821573377, -0.12996815145016, 0.04654739797115, -0.08310672640800, 0.28347006440163, -0.07816891372204, -0.00580011680722, -0.02966802380979, -0.01880098693073, 0.27683272957802, -0.17214407026768, -0.11912570893764, -0.32411122322083, 0.18027082085609, -0.16174048185349, 0.09709988534451, -0.04604262486100, -0.44543677568436, 0.25232985615730, 0.04605698585510, 0.20319241285324, 0.01875565759838, 0.17166678607464, 0.04063499718904, 0.02255505882204, 0.20823520421982, 0.28564333915710, 0.28466925024986, 0.19711369276047, -0.06484449654818, 0.10109838843346, 0.10097071528435, -0.22055393457413, 0.15337210893631, -0.29481256008148, -0.02721651829779, -0.09822086989880, -0.13924461603165, 0.14892859756947, -0.13242775201797, 0.25920921564102, 0.04950620234013, -0.11999197304249, 0.10244190692902, -0.33488798141479, -0.04508010670543, 0.05614848434925, -0.10213386267424, -0.05290879309177, 0.17670761048794, -0.04759806022048, -0.01986027695239, -0.00944825168699, -0.03039830364287, -0.15241882205009, 0.09681291878223, 0.29557964205742, 0.03923921287060, 0.16430965065956, 0.17836304008961, 0.03777685016394, 0.10687903314829, 0.07860794663429, -0.17454083263874, 0.28627324104309, -0.03446480631828, 0.06764369457960, 0.09656627476215, 0.01881789788604, 0.32975822687149, -0.01207507867366, -0.03366039693356, 0.25031417608261, -0.05750782042742, 0.11141680926085, -0.01629813015461, 0.34345293045044, 0.31027910113335, -0.13776309788227, -0.19533652067184, -0.03667938709259, -0.08160565048456, 0.16577824950218, -0.06959490478039, 0.23049709200859, 0.06808605045080, 0.32671013474464, 0.23796047270298, 0.14116795361042, 0.09288705140352, 0.11101482808590, 0.00450493348762, 0.12049887329340, 0.19080169498920, -0.15850028395653, 0.31096398830414, 0.06510390341282, -0.01319515984505, 0.09181597083807, -0.08691397309303, 0.00764997955412, 0.24530802667141, -0.02554011344910, 0.21424517035484, -0.38134276866913, 0.22245398163795, -0.07158802449703, -0.20624999701977, 0.02959681302309, -0.14917276799679, 0.10101596266031, 0.00478712003678, -0.05869114398956, -0.00030542362947, -0.17117010056973, 0.09883666783571, 0.01077451836318, -0.04411968588829, 0.13817092776299, -0.24300026893616, 0.05058771371841, 0.05304950848222, 0.17962336540222, -0.06918668001890, 0.12936697900295, 0.16479139029980, 0.03070713393390, 0.02126235142350, -0.09102180600166, 0.04529706761241, -0.02734004706144, 0.06301939487457, -0.14693295955658, 0.02876688912511, -0.27686554193497, 0.00005026777217, -0.06310525536537, -0.25895205140114, 0.17613896727562, -0.09799561649561, 0.01123804785311, 0.21426667273045, -0.14922513067722, -0.26839122176170, 0.10058154165745, -0.15848895907402, -0.18947727978230, 0.06940903514624, -0.12041907012463, 0.05620318278670, -0.24825255572796, -0.16133527457714, -0.04516947641969, 0.09425233304501, -0.41006860136986, -0.22370873391628, -0.25484052300453, -0.38659274578094, -0.06973177939653, -0.25163415074348, 0.17531269788742, 0.00461165374145, -0.11525833606720, 0.03390688821673, -0.05275113508105, -0.17956180870533, -0.05420779809356, -0.04209244251251, -0.07161565124989, 0.02679034881294, -0.10779025405645, 0.04202614724636, -0.02448495477438, 0.27020210027695, -0.14467187225819, 0.17759826779366, 0.02482789568603, 0.04793003201485, 0.04920360818505, 0.13629394769669, -0.01619116961956, 0.08555937558413, 0.15712434053421, -0.04815071821213, 0.02749283239245, 0.33478483557701, 0.03919245302677, -0.07890574634075, 0.08036828041077, -0.20451599359512, 0.07392337173223, 0.06043314561248, 0.04547058418393, -0.06950604915619, 0.13917425274849, -0.01610500924289, 0.11905150860548, -0.00395905412734, 0.05689248815179, -0.04106665030122, -0.09023478627205, -0.10804589837790, -0.05382236093283, -0.01721083559096, 0.24731168150902, -0.04322258755565, 0.00549091259018, 0.17322726547718, -0.05107575654984, 0.23726812005043, -0.11026087403297, -0.13902705907822, -0.22337581217289, 0.16559194028378, -0.37529221177101, 0.12532608211040, -0.01529470365494, -0.16672159731388, 0.09505596011877, -0.16716045141220, 0.06653264164925, 0.09304036200047, 0.14713107049465, -0.00043290687609, -0.01313510444015, 0.02954420261085, 0.23367591202259, 0.07673394680023, 0.25331184267998, 0.04284439608455, -0.02097431756556, 0.04326991736889, -0.20929102599621, 0.19837501645088, -0.27464058995247, -0.13963456451893, -0.17314289510250, -0.36599650979042, 0.06527055054903, -0.19021108746529, 0.21304404735565, 0.15811517834663, -0.03782375901937, 0.17646674811840, -0.25012180209160, -0.15186604857445, -0.10594685375690, 0.07666925340891, 0.01223120279610, 0.01321184821427, 0.13593986630440, -0.03517135605216, 0.21396541595459, 0.04236377030611, 0.01539526414126, 0.05440177768469, 0.48968973755836, 0.15194158256054, 0.00523067079484, 0.01572509109974, 0.11731750518084, 0.20807634294033, 0.21795539557934, -0.06994124501944, 0.24803248047829, -0.12625060975552, 0.27204510569572, 0.16112169623375, -0.02704649046063, 0.30561369657516, 0.02320585213602, -0.11033063381910, 0.18934629857540, -0.12474535405636, 0.04632537066936, -0.00053449894767, 0.33889126777649, 0.24900452792645, 0.06935101002455, -0.18626517057419, -0.03025323525071, -0.09414560347795, 0.23052030801773, 0.06445946544409, 0.06904306262732, 0.04007848352194, 0.47909325361252, 0.11077509075403, 0.21665357053280, 0.16500051319599, -0.06917760521173, 0.03253494948149, 0.25915729999542, 0.05308062955737, -0.00497273914516, 0.28436285257339, 0.10430619865656, -0.11825237423182, 0.16229744255543, -0.25097012519836, 0.05688865482807, 0.04082990065217, 0.00845161359757, 0.31859996914864, -0.24530987441540, 0.14668586850166, -0.16133336722851, -0.24216483533382, 0.14732712507248, -0.06471280753613, 0.08901223540306, 0.14742009341717, 0.09982500970364, -0.08516226708889, -0.06203551217914, -0.10504856705666, -0.01134875323623, -0.20681618154049, 0.08860412985086, -0.29752472043037, -0.09220711141825, 0.11566746979952, 0.05573270469904, -0.13394871354103, 0.06128118187189, -0.04077982157469, 0.09078051149845, 0.26882836222649, -0.06260667741299, 0.19735093414783, 0.03189763799310, 0.02475090883672, -0.08136463165283, 0.26145434379578, -0.31624278426170, -0.13440492749214, -0.10002884268761, -0.24131771922112, 0.16321654617786, -0.10221247375011, 0.13875068724155, -0.02522683702409, -0.03289685770869, -0.23070444166660, 0.34714382886887, -0.09657842665911, -0.32608726620674, 0.16717258095741, -0.14733459055424, 0.04066418483853, -0.24439096450806, -0.32354944944382, -0.20324102044106, 0.19330713152885, -0.53695559501648, 0.00432527484372, -0.18435965478420, -0.41505333781242, -0.13048201799393, -0.29459440708160, 0.15820112824440, -0.08097368478775, -0.08852506428957, 0.12799961864948, -0.20370078086853, -0.07500033080578, -0.09724068641663, -0.14811643958092, 0.00557105895132, -0.15666221082211, -0.00998292397708, 0.10138081014156, -0.07453915476799, 0.37022385001183, -0.22460104525089, 0.25159373879433, -0.16245505213737, -0.02048505656421, 0.24887636303902, 0.19012314081192, -0.03769865259528, 0.08841854333878, 0.05631049722433, -0.03835383057594, 0.06549378484488, 0.21550786495209, 0.25586172938347, -0.02031886205077, 0.17829135060310, -0.00781931728125, 0.12914596498013, 0.16455692052841, 0.17341710627079, -0.14779271185398, 0.14169120788574, 0.22313590347767, 0.09496130049229, 0.20668561756611, 0.10159981995821, -0.11496619880199, 0.09587235003710, -0.09760537743568, -0.13469511270523, 0.02117467112839, 0.22164340317249, -0.08073860406876, -0.08459961414337, -0.01954230852425, -0.00051417032955, 0.16742670536041, -0.10139880329370, -0.12819734215736, -0.23681567609310, 0.09502799063921, -0.38017055392265, 0.36785736680031, -0.02354398369789, -0.29387959837914, 0.04078080877662, -0.11650189757347, 0.23188969492912, 0.12037556618452, 0.16988788545132, 0.13169971108437, 0.02606909908354, 0.09483176469803, 0.53574424982071, 0.16239823400974, 0.21268028020859, -0.02601180970669, 0.17594057321548, 0.27419906854630, -0.29567384719849, 0.16464087367058, -0.19564536213875, -0.03721535578370, -0.29170298576355, -0.16197746992111, -0.08349326997995, -0.19430314004421, 0.04260982945561, 0.06934754550457, -0.07198101282120, 0.10532423108816, -0.23425228893757, -0.18900124728680, 0.00809752754867, -0.06397058069706, 0.03959880396724, -0.03016318380833, 0.16518861055374, 0.07046715170145, 0.21155913174152, 0.01401923131198, -0.02397162280977, 0.17696841061115, 0.51204937696457, 0.03510877490044, 0.16638898849487, -0.30813127756119, 0.03399347141385, 0.20928990840912, 0.07423638552427, -0.03504717722535, 0.31137245893478, -0.11423190683126, 0.33049085736275, 0.25652199983597, -0.03020436875522, 0.11285561323166, -0.08416517078876, -0.14680129289627, 0.34630495309830, -0.02911897376180, 0.12086705118418, 0.15192225575447, 0.45503374934196, 0.14313708245754, -0.00360939349048, -0.14825434982777, 0.12148111313581, 0.10479568690062, 0.11489933729172, -0.02558766491711, 0.09280281513929, 0.07281668484211, 0.50754868984222, 0.32840871810913, 0.13792218267918, -0.08996865153313, -0.07416822016239, 0.13699862360954, 0.21248964965343, 0.08018675446510, -0.11854267865419, 0.35159280896187, 0.09473261982203, 0.02313607372344, 0.06998910009861, -0.05365315452218, 0.25830641388893, 0.21025413274765, -0.02408438734710, 0.28005462884903, -0.40920236706734, 0.26328217983246, -0.22672703862190, -0.19809855520725, 0.04322940856218, 0.16609163582325, 0.25462999939919, 0.00708828074858, 0.11875614523888, 0.15475924313068, -0.15179845690727, -0.10280433297157, 0.04137495160103, -0.20223334431648, -0.10639386624098, -0.41481781005859, 0.14045174419880, -0.09900703281164, 0.27835533022881, -0.04683817550540, 0.21501217782497, 0.14905425906181, 0.29971447587013, 0.26264104247093, 0.01107085403055, 0.30425271391869, 0.12314068526030, 0.08700602501631, -0.13474634289742, 0.03134033083916, -0.06213544309139, -0.14216397702694, -0.31864339113235, -0.22495666146278, -0.13955409824848, -0.25218838453293, 0.02478295005858, 0.20329588651657, 0.19246037304401, -0.14157792925835, 0.17926722764969, -0.10940001904964, -0.24851690232754, 0.00250429380685, -0.37220686674118, 0.16152036190033, -0.03187024593353, -0.26584666967392, -0.22566780447960, -0.04699731245637, -0.48133474588394, -0.13434688746929, -0.37441369891167, -0.37414500117302, -0.13407325744629, -0.15614950656891, 0.08167365938425, -0.04531775414944, -0.13757254183292, 0.17257624864578, -0.24198924005032, 0.02049271017313, -0.37112212181091, -0.06096023321152, -0.08258794993162, 0.06369393318892, 0.05556035414338, 0.13446904718876, 0.08498872071505, 0.09970734268427, -0.21296195685863, 0.11530371010303, -0.06080591678619, -0.01707613654435, 0.19035768508911, 0.13841047883034, 0.17834129929543, 0.28036132454872, 0.07272586226463, 0.16551820933819, -0.16826637089252, 0.34154969453812, 0.17234463989735, 0.09298709779978, 0.24731045961380, -0.01737338304520, 0.06969772279263, 0.06908669322729, 0.29437798261642, -0.01986109092832, 0.30047565698624, 0.11845985800028, 0.25915247201920, 0.20263351500034, -0.01456819567829, 0.17525972425938, -0.10720132291317, 0.00540610309690, -0.18224784731865, -0.08840701729059, 0.27729171514511, -0.26807111501694, -0.11828950047493, -0.04262472689152, -0.01303770206869, 0.05259364098310, 0.03999191150069, -0.07982568442822, -0.13457223773003, 0.25907930731773, -0.25653362274170, 0.26338416337967, -0.20652860403061, -0.31595113873482, 0.23999601602554, -0.21523168683052, 0.16448087990284, 0.01785770989954, 0.38516306877136, 0.10703758150339, 0.22054511308670, 0.24230965971947, 0.43319925665855, 0.11925145238638, 0.28812262415886, -0.15462516248226, 0.22751511633396, 0.22894005477428, -0.20452629029751, 0.07329994440079, -0.27704989910126, 0.01446490269154, -0.21005281805992, -0.30665409564972, -0.09488062560558, -0.28093564510345, 0.15426810085773, 0.16403816640377, 0.07435354590416, -0.01220121886581, -0.26662167906761, 0.06357754766941, -0.12651330232620, 0.10623688995838, -0.08735466003418, 0.07607872039080, 0.08198938518763, 0.01321715395898, 0.27538391947746, 0.19268743693829, -0.04785842075944, 0.25105026364326, 0.61643725633621, 0.28010421991348, 0.22074274718761, -0.40659081935883, 0.18549214303493, 0.12787786126137, 0.29283064603806, -0.15778565406799, 0.25222635269165, 0.03065899759531, 0.32290539145470, 0.14050260186195, 0.04010583460331, -0.18447664380074, -0.00768788391724, -0.16814240813255, 0.10219289362431, -0.01573164388537, 0.13987080752850, -0.07383153587580, 0.52444177865982, 0.35636770725250, 0.22792659699917, 0.07767333090305, 0.02795558050275, -0.10042922943830, 0.25607001781464, 0.06587502360344, 0.22214807569981, 0.21979689598083, 0.52436977624893, 0.14716222882271, 0.25170391798019, -0.07026628404856, -0.02623297274113, 0.26625564694405, 0.26780101656914, 0.08789586275816, -0.22195726633072, 0.39447125792503, 0.24160538613796, -0.04030211269855, 0.00251893908717, 0.01808238588274, 0.15838140249252, 0.10094045847654, 0.06552895158529, 0.04399821534753, -0.16778184473515, 0.29231151938438, -0.24902185797691, -0.03686356171966, 0.08614433556795, 0.19326217472553, 0.08956304192543, 0.00628273095936, -0.18021053075790, -0.06903283298016, -0.27004304528236, -0.16834802925587, -0.11902669072151, -0.16151665151119, 0.05954279378057, -0.32390573620796, -0.09958896040916, -0.06078834831715, 0.04226462915540, 0.07058699429035, 0.22702774405479, 0.13354863226414, 0.56317132711411, 0.26373124122620, -0.12690472602844, 0.38939318060875, -0.02154330164194, -0.08287318795919, -0.19044429063797, -0.00910043343902, -0.25187435746193, -0.11438781768084, -0.25271657109261, -0.25483077764511, -0.01439652778208, -0.08282313495874, 0.13426229357719, 0.09177168458700};
#endif

#endif
